{
  "hybrid_P50": {
    "method": "hybrid_lse_polyak",
    "P": 50,
    "exact_peak": 1.5196502040674316,
    "time_s": 22.184006690979004,
    "simplex_weights": [
      0.025829338651701596,
      0.02659360044561034,
      0.027437867163867306,
      0.025989449225124847,
      0.025782538105419438,
      0.026995363083080995,
      0.024910575980098753,
      0.02411907167533209,
      0.019205471228428896,
      0.0010723424053847323,
      0.007389113285544329,
      0.01757119724921179,
      0.02052313440242578,
      0.021820268397035783,
      0.026545719879073316,
      0.029676439611444352,
      0.03269992407340083,
      0.03953308969911453,
      0.04505915240631816,
      0.05007752398671428,
      0.017007969940311122,
      0.028967688244558976,
      0.017837704757923865,
      0.018793656289851742,
      0.020894604084478675,
      0.012797051814330631,
      0.006040923350321456,
      9.413871484972252e-06,
      0.004736070717799954,
      0.05704174220381338,
      5.294635384686223e-06,
      0.0,
      0.00486149323348178,
      3.7104847534678925e-06,
      0.0,
      9.846719688380228e-06,
      6.937200712161077e-06,
      3.559425901871285e-06,
      8.120404673505268e-06,
      0.00018489866860554275,
      0.05382266268178859,
      0.04739963103053954,
      0.0053892061899592746,
      0.01205406135642985,
      0.022616810616129964,
      0.0086889613124839,
      0.0018555928789611062,
      0.0013554054268801149,
      0.015508222353403088,
      0.12326757915101585
    ],
    "edges": [
      -0.25,
      -0.24,
      -0.23,
      -0.22,
      -0.21,
      -0.2,
      -0.19,
      -0.18,
      -0.16999999999999998,
      -0.16,
      -0.15,
      -0.14,
      -0.13,
      -0.12,
      -0.10999999999999999,
      -0.1,
      -0.09,
      -0.07999999999999999,
      -0.07,
      -0.06,
      -0.04999999999999999,
      -0.04000000000000001,
      -0.03,
      -0.01999999999999999,
      -0.010000000000000009,
      0.0,
      0.010000000000000009,
      0.020000000000000018,
      0.030000000000000027,
      0.03999999999999998,
      0.04999999999999999,
      0.06,
      0.07,
      0.08000000000000002,
      0.09000000000000002,
      0.10000000000000003,
      0.10999999999999999,
      0.12,
      0.13,
      0.14,
      0.15000000000000002,
      0.16000000000000003,
      0.16999999999999998,
      0.18,
      0.19,
      0.2,
      0.21000000000000002,
      0.22000000000000003,
      0.22999999999999998,
      0.24,
      0.25
    ],
    "heights": [
      2.5829338651701597,
      2.659360044561034,
      2.7437867163867304,
      2.5989449225124845,
      2.578253810541944,
      2.699536308308099,
      2.491057598009875,
      2.411907167533209,
      1.9205471228428894,
      0.10723424053847323,
      0.7389113285544329,
      1.757119724921179,
      2.052313440242578,
      2.1820268397035782,
      2.6545719879073317,
      2.967643961144435,
      3.2699924073400832,
      3.953308969911453,
      4.505915240631816,
      5.007752398671427,
      1.700796994031112,
      2.8967688244558976,
      1.7837704757923865,
      1.8793656289851741,
      2.0894604084478674,
      1.279705181433063,
      0.6040923350321455,
      0.0009413871484972252,
      0.4736070717799954,
      5.704174220381338,
      0.0005294635384686222,
      0.0,
      0.48614932334817795,
      0.00037104847534678924,
      0.0,
      0.0009846719688380227,
      0.0006937200712161077,
      0.0003559425901871285,
      0.0008120404673505269,
      0.018489866860554274,
      5.382266268178859,
      4.739963103053954,
      0.5389206189959275,
      1.205406135642985,
      2.2616810616129963,
      0.86889613124839,
      0.18555928789611062,
      0.1355405426880115,
      1.5508222353403087,
      12.326757915101584
    ]
  },
  "hybrid_P100": {
    "method": "hybrid_lse_polyak",
    "P": 100,
    "exact_peak": 1.5149818027062802,
    "time_s": 6.975961446762085,
    "simplex_weights": [
      0.08702423869937918,
      0.015195976233483614,
      0.021122739698790822,
      0.00751599827062825,
      0.008669044997706515,
      0.005380170978784539,
      0.00020954528032659476,
      0.004081189589659094,
      2.258974348911746e-06,
      0.001701069858101318,
      0.0015376820318958081,
      0.0011043493522120656,
      0.00021971620497054405,
      8.258049322184686e-06,
      0.006803850033794508,
      0.003820114783593654,
      0.02733622819609459,
      0.0045100448963701495,
      4.1972746500404905e-06,
      0.0008634197733731533,
      1.512552456953382e-06,
      4.20463799349857e-06,
      7.529535413063324e-06,
      4.113809694059723e-06,
      3.638269632303915e-06,
      2.5638320898891668e-05,
      5.677249470287528e-07,
      0.003645743343714839,
      1.643779266581436e-06,
      0.0030736353561796595,
      0.00519248236249867,
      0.004656558617603159,
      0.010264923074126605,
      0.03274444129405889,
      0.033867326459482254,
      0.001714823004626475,
      0.022469963905607473,
      0.002585223167798956,
      0.011432529893126908,
      0.004280153831579584,
      0.0027518850832849127,
      0.010179276496456394,
      3.6682313519760545e-06,
      0.013068403396193596,
      0.0015820930954616292,
      0.009232598921960962,
      0.007942635438597533,
      0.011353972886051361,
      0.01263234982790621,
      0.024036183065752913,
      0.00135431063262879,
      2.9354116038684465e-06,
      3.7796996794588612e-06,
      3.169389262416265e-06,
      2.939356976991874e-06,
      0.007239545188363846,
      0.001194334759365875,
      0.009641438018926548,
      0.0012016968156457542,
      0.0072961253547359555,
      0.005295785763038289,
      0.0057813854948418385,
      0.007496280221117875,
      0.003949531089710841,
      0.010141045241473936,
      5.079998801983878e-06,
      0.008140985244679658,
      0.02484363969046434,
      0.023837780207114058,
      0.020378437712549845,
      0.017902186395192126,
      0.01943478933987381,
      0.017787714688720705,
      0.02014082654587256,
      0.01821728918207323,
      0.017904032541152328,
      0.01735371576995668,
      0.015180326576604078,
      0.01797615169184386,
      0.013238334023299101,
      0.014859220183612475,
      0.012090917416084743,
      0.008061820223079656,
      0.0076074519739175745,
      0.01574376615034875,
      0.014760072517913126,
      0.01749838240655177,
      0.015904315786852523,
      0.014224867562338678,
      0.013325773686692159,
      0.012843156647823685,
      0.012696797669021063,
      0.013894674833359552,
      0.012202595121483598,
      0.012283385814655746,
      0.011818833144534075,
      0.011857201388909994,
      0.01249475662422486,
      0.01099526153002545,
      0.016021344711790553
    ],
    "edges": [
      -0.25,
      -0.245,
      -0.24,
      -0.235,
      -0.23,
      -0.225,
      -0.22,
      -0.215,
      -0.21,
      -0.20500000000000002,
      -0.2,
      -0.195,
      -0.19,
      -0.185,
      -0.18,
      -0.175,
      -0.16999999999999998,
      -0.16499999999999998,
      -0.16,
      -0.155,
      -0.15,
      -0.14500000000000002,
      -0.14,
      -0.135,
      -0.13,
      -0.125,
      -0.12,
      -0.11499999999999999,
      -0.10999999999999999,
      -0.10500000000000001,
      -0.1,
      -0.095,
      -0.09,
      -0.08499999999999999,
      -0.07999999999999999,
      -0.07499999999999998,
      -0.07,
      -0.065,
      -0.06,
      -0.05499999999999999,
      -0.04999999999999999,
      -0.044999999999999984,
      -0.04000000000000001,
      -0.035,
      -0.03,
      -0.024999999999999994,
      -0.01999999999999999,
      -0.014999999999999986,
      -0.010000000000000009,
      -0.0050000000000000044,
      0.0,
      0.0050000000000000044,
      0.010000000000000009,
      0.015000000000000013,
      0.020000000000000018,
      0.025000000000000022,
      0.030000000000000027,
      0.03500000000000003,
      0.03999999999999998,
      0.044999999999999984,
      0.04999999999999999,
      0.05499999999999999,
      0.06,
      0.065,
      0.07,
      0.07500000000000001,
      0.08000000000000002,
      0.08500000000000002,
      0.09000000000000002,
      0.09500000000000003,
      0.10000000000000003,
      0.10499999999999998,
      0.10999999999999999,
      0.11499999999999999,
      0.12,
      0.125,
      0.13,
      0.135,
      0.14,
      0.14500000000000002,
      0.15000000000000002,
      0.15500000000000003,
      0.16000000000000003,
      0.16500000000000004,
      0.16999999999999998,
      0.175,
      0.18,
      0.185,
      0.19,
      0.195,
      0.2,
      0.20500000000000002,
      0.21000000000000002,
      0.21500000000000002,
      0.22000000000000003,
      0.22500000000000003,
      0.22999999999999998,
      0.235,
      0.24,
      0.245,
      0.25
    ],
    "heights": [
      17.404847739875837,
      3.039195246696723,
      4.224547939758164,
      1.50319965412565,
      1.733808999541303,
      1.0760341957569077,
      0.04190905606531895,
      0.8162379179318188,
      0.00045179486978234916,
      0.3402139716202636,
      0.30753640637916163,
      0.22086987044241313,
      0.04394324099410881,
      0.001651609864436937,
      1.3607700067589017,
      0.7640229567187308,
      5.467245639218918,
      0.9020089792740299,
      0.0008394549300080981,
      0.17268395467463066,
      0.0003025104913906764,
      0.0008409275986997139,
      0.0015059070826126649,
      0.0008227619388119445,
      0.000727653926460783,
      0.005127664179778333,
      0.00011354498940575056,
      0.7291486687429678,
      0.0003287558533162872,
      0.6147270712359318,
      1.0384964724997339,
      0.9313117235206317,
      2.052984614825321,
      6.548888258811777,
      6.773465291896451,
      0.342964600925295,
      4.493992781121495,
      0.5170446335597911,
      2.2865059786253816,
      0.8560307663159168,
      0.5503770166569826,
      2.0358552992912786,
      0.0007336462703952109,
      2.613680679238719,
      0.3164186190923258,
      1.8465197843921923,
      1.5885270877195066,
      2.270794577210272,
      2.526469965581242,
      4.807236613150582,
      0.270862126525758,
      0.0005870823207736892,
      0.0007559399358917722,
      0.000633877852483253,
      0.0005878713953983748,
      1.4479090376727692,
      0.23886695187317503,
      1.9282876037853096,
      0.24033936312915083,
      1.459225070947191,
      1.0591571526076577,
      1.1562770989683677,
      1.499256044223575,
      0.7899062179421682,
      2.028209048294787,
      0.0010159997603967756,
      1.6281970489359316,
      4.968727938092868,
      4.767556041422812,
      4.075687542509969,
      3.580437279038425,
      3.886957867974762,
      3.5575429377441408,
      4.028165309174512,
      3.6434578364146457,
      3.5808065082304656,
      3.470743153991336,
      3.0360653153208155,
      3.5952303383687716,
      2.64766680465982,
      2.971844036722495,
      2.4181834832169486,
      1.6123640446159313,
      1.5214903947835148,
      3.14875323006975,
      2.952014503582625,
      3.4996764813103542,
      3.1808631573705046,
      2.8449735124677353,
      2.665154737338432,
      2.568631329564737,
      2.5393595338042125,
      2.7789349666719105,
      2.4405190242967194,
      2.4566771629311495,
      2.363766628906815,
      2.371440277781999,
      2.498951324844972,
      2.1990523060050897,
      3.2042689423581106
    ]
  },
  "hybrid_P200": {
    "method": "hybrid_lse_polyak",
    "P": 200,
    "exact_peak": 1.5102945368309324,
    "time_s": 19.133286714553833,
    "simplex_weights": [
      0.043027521097350925,
      0.02372243830782805,
      0.016837989452976997,
      0.03458301665040495,
      0.00860878791543325,
      2.4767133818884788e-06,
      2.127918397799463e-06,
      0.011870985090655548,
      0.017881452582702396,
      7.78327313748506e-07,
      0.0009367155462978453,
      0.0040885759819440076,
      5.881064842880732e-05,
      0.000353021582714971,
      0.004613964117422301,
      0.006882070787668927,
      3.1517969355880575e-05,
      1.4461317465884272e-06,
      7.948309697209575e-07,
      7.78327313748506e-07,
      2.0043388762450077e-06,
      3.527063879383249e-06,
      2.729003834318186e-06,
      7.78327313748506e-07,
      7.78327313748506e-07,
      7.78327313748506e-07,
      2.930431341739515e-06,
      1.6872886468021057e-06,
      7.78327313748506e-07,
      1.6310428381143364e-06,
      3.6009837761958886e-06,
      5.9332361180926495e-06,
      2.8003637154577054e-06,
      7.834334238106323e-07,
      0.0009499896321882788,
      0.004131278923657686,
      0.0029311247301189915,
      0.0031301486335498035,
      7.78327313748506e-07,
      3.880591013117154e-06,
      4.0108977072341075e-06,
      9.688215978707792e-05,
      2.1914165755006231e-07,
      0.0,
      5.019842795366848e-07,
      8.746864784784821e-07,
      1.6833932624112558e-06,
      0.0,
      4.17906365978271e-07,
      3.076985683593851e-07,
      1.9950901919700614e-06,
      5.151218462320212e-06,
      0.001682957830246951,
      0.005923762784829411,
      0.011482778699101468,
      0.011374608857035708,
      0.012112319163598105,
      0.011807025968357018,
      0.004580655048190832,
      0.006045324994550709,
      8.900425291074334e-07,
      0.0027933901993548796,
      1.4009890137143915e-06,
      0.005560477630026294,
      0.00034034981879332724,
      0.002444666227349889,
      0.002642009689121231,
      1.221429571697368e-06,
      0.00015747133229687137,
      3.0634277980528917e-06,
      2.900632447558454e-06,
      0.001246826040752924,
      0.005462929494343623,
      0.003050366186872329,
      0.0076149471215614375,
      0.008604961657004712,
      0.007777011034005608,
      0.009504301298149147,
      0.008607951552435524,
      0.0032713637366091476,
      0.0013007368862187915,
      0.006915609068504396,
      0.012215178711552038,
      0.003535156306903372,
      0.007483299306787577,
      0.00794423177856644,
      0.0036700175964627076,
      0.004565013923599602,
      0.011370495389713589,
      0.019642344852369896,
      0.012909075114687555,
      0.009808954052224685,
      0.0037471671262577066,
      0.0007001623033334717,
      0.00020283685485845087,
      3.322963256375482e-06,
      3.3448348799529677e-06,
      2.2254018562402464e-06,
      2.508001646965597e-06,
      1.9899822951285993e-06,
      5.561060371324654e-06,
      6.757676529164201e-07,
      2.4933117467705403e-06,
      0.0,
      2.797981763536273e-06,
      2.244200885773652e-06,
      0.0019068373317127087,
      8.853068152556998e-07,
      5.792418121517395e-07,
      2.596835243870047e-06,
      3.091153523978645e-06,
      3.4299454836833336e-06,
      0.0013586548148327843,
      0.000957546361832762,
      0.004498532951197157,
      0.0026972055394363474,
      0.002786425487225546,
      0.00103056214173093,
      0.0019503349380522513,
      0.005443204708233932,
      0.00144684826244586,
      0.003082463972302719,
      0.0067492449357033114,
      0.002211049872232092,
      0.0005824693437750324,
      0.0008408016933058895,
      0.011115072076825765,
      0.008605223616717412,
      0.009081210605040019,
      0.012931074122942504,
      0.008119056999378295,
      0.011724510065648187,
      0.009386879299264449,
      0.009208118926485664,
      0.005707614771709573,
      0.00983533875326457,
      0.006068417065264537,
      0.00878081636343266,
      0.007134879876923038,
      0.008443995589958899,
      0.0068627377685332985,
      0.0067199391335602135,
      0.003287978869527728,
      0.005445453183860705,
      0.00539455291944247,
      0.006482298974684804,
      0.0057530928783461706,
      0.008423480604987035,
      0.009507997943558368,
      0.012540163413102438,
      0.00950327862771393,
      0.009032477932406096,
      0.007034738508767567,
      0.010485544936728953,
      0.009014647440800721,
      0.009917009457907897,
      0.006140239285429897,
      0.00867840056200518,
      0.009319285063105961,
      0.009949465667001795,
      0.006793713843979645,
      0.005105466453501244,
      0.004803971867331017,
      0.0051139502431852375,
      0.0071848136872052736,
      0.005740185659728024,
      0.003661251891113196,
      0.005781730753955398,
      0.0098278996590516,
      0.010301729024951812,
      0.006378334741401124,
      0.0037924122288825546,
      0.005333513337936704,
      0.008985376566813188,
      0.011086574514976518,
      0.006885438914283955,
      0.0038946585533738485,
      0.005257213663849628,
      0.008992863825055437,
      0.009839804308774581,
      0.005753083917656533,
      0.0036824831996356794,
      0.004252723019244449,
      0.008368081485623072,
      0.008496911051665277,
      0.004217453959281934,
      0.0027564177503009686,
      0.004681515167111328,
      0.00828770455169567,
      0.00825252290893972,
      0.004762144588029243,
      0.002446099526542768,
      0.003986942682824987,
      0.009085890791393634,
      0.006243269129679316,
      0.005660542242210038,
      0.0014366181191622493,
      0.007526645465659308,
      0.007356049627228991,
      0.009867609780581493
    ],
    "edges": [
      -0.25,
      -0.2475,
      -0.245,
      -0.2425,
      -0.24,
      -0.2375,
      -0.235,
      -0.23249999999999998,
      -0.23,
      -0.2275,
      -0.225,
      -0.2225,
      -0.22,
      -0.2175,
      -0.215,
      -0.2125,
      -0.21,
      -0.2075,
      -0.20500000000000002,
      -0.2025,
      -0.2,
      -0.1975,
      -0.195,
      -0.1925,
      -0.19,
      -0.1875,
      -0.185,
      -0.1825,
      -0.18,
      -0.1775,
      -0.175,
      -0.1725,
      -0.16999999999999998,
      -0.16749999999999998,
      -0.16499999999999998,
      -0.16249999999999998,
      -0.16,
      -0.1575,
      -0.155,
      -0.1525,
      -0.15,
      -0.1475,
      -0.14500000000000002,
      -0.14250000000000002,
      -0.14,
      -0.1375,
      -0.135,
      -0.1325,
      -0.13,
      -0.1275,
      -0.125,
      -0.1225,
      -0.12,
      -0.1175,
      -0.11499999999999999,
      -0.11249999999999999,
      -0.10999999999999999,
      -0.10749999999999998,
      -0.10500000000000001,
      -0.10250000000000001,
      -0.1,
      -0.0975,
      -0.095,
      -0.0925,
      -0.09,
      -0.0875,
      -0.08499999999999999,
      -0.08249999999999999,
      -0.07999999999999999,
      -0.07749999999999999,
      -0.07499999999999998,
      -0.07250000000000001,
      -0.07,
      -0.0675,
      -0.065,
      -0.0625,
      -0.06,
      -0.057499999999999996,
      -0.05499999999999999,
      -0.05249999999999999,
      -0.04999999999999999,
      -0.04749999999999999,
      -0.044999999999999984,
      -0.04249999999999998,
      -0.04000000000000001,
      -0.037500000000000006,
      -0.035,
      -0.0325,
      -0.03,
      -0.027499999999999997,
      -0.024999999999999994,
      -0.022499999999999992,
      -0.01999999999999999,
      -0.017499999999999988,
      -0.014999999999999986,
      -0.012499999999999983,
      -0.010000000000000009,
      -0.007500000000000007,
      -0.0050000000000000044,
      -0.0025000000000000022,
      0.0,
      0.0025000000000000022,
      0.0050000000000000044,
      0.007500000000000007,
      0.010000000000000009,
      0.012500000000000011,
      0.015000000000000013,
      0.017500000000000016,
      0.020000000000000018,
      0.02250000000000002,
      0.025000000000000022,
      0.027500000000000024,
      0.030000000000000027,
      0.03250000000000003,
      0.03500000000000003,
      0.03750000000000003,
      0.03999999999999998,
      0.04249999999999998,
      0.044999999999999984,
      0.04749999999999999,
      0.04999999999999999,
      0.05249999999999999,
      0.05499999999999999,
      0.057499999999999996,
      0.06,
      0.0625,
      0.065,
      0.0675,
      0.07,
      0.07250000000000001,
      0.07500000000000001,
      0.07750000000000001,
      0.08000000000000002,
      0.08250000000000002,
      0.08500000000000002,
      0.08750000000000002,
      0.09000000000000002,
      0.09250000000000003,
      0.09500000000000003,
      0.09750000000000003,
      0.10000000000000003,
      0.10249999999999998,
      0.10499999999999998,
      0.10749999999999998,
      0.10999999999999999,
      0.11249999999999999,
      0.11499999999999999,
      0.1175,
      0.12,
      0.1225,
      0.125,
      0.1275,
      0.13,
      0.1325,
      0.135,
      0.1375,
      0.14,
      0.14250000000000002,
      0.14500000000000002,
      0.14750000000000002,
      0.15000000000000002,
      0.15250000000000002,
      0.15500000000000003,
      0.15750000000000003,
      0.16000000000000003,
      0.16250000000000003,
      0.16500000000000004,
      0.16749999999999998,
      0.16999999999999998,
      0.1725,
      0.175,
      0.1775,
      0.18,
      0.1825,
      0.185,
      0.1875,
      0.19,
      0.1925,
      0.195,
      0.1975,
      0.2,
      0.2025,
      0.20500000000000002,
      0.20750000000000002,
      0.21000000000000002,
      0.21250000000000002,
      0.21500000000000002,
      0.21750000000000003,
      0.22000000000000003,
      0.22250000000000003,
      0.22500000000000003,
      0.22750000000000004,
      0.22999999999999998,
      0.23249999999999998,
      0.235,
      0.2375,
      0.24,
      0.2425,
      0.245,
      0.2475,
      0.25
    ],
    "heights": [
      17.211008438940368,
      9.48897532313122,
      6.735195781190799,
      13.83320666016198,
      3.4435151661732997,
      0.0009906853527553916,
      0.0008511673591197851,
      4.748394036262219,
      7.152581033080958,
      0.0003113309254994024,
      0.3746862185191381,
      1.635430392777603,
      0.023524259371522926,
      0.1412086330859884,
      1.8455856469689202,
      2.7528283150675708,
      0.012607187742352229,
      0.0005784526986353708,
      0.00031793238788838297,
      0.0003113309254994024,
      0.000801735550498003,
      0.0014108255517532996,
      0.0010916015337272744,
      0.0003113309254994024,
      0.0003113309254994024,
      0.0003113309254994024,
      0.0011721725366958058,
      0.0006749154587208422,
      0.0003113309254994024,
      0.0006524171352457345,
      0.0014403935104783554,
      0.0023732944472370596,
      0.0011201454861830822,
      0.0003133733695242529,
      0.3799958528753115,
      1.6525115694630745,
      1.1724498920475965,
      1.2520594534199214,
      0.0003113309254994024,
      0.0015522364052468615,
      0.001604359082893643,
      0.03875286391483117,
      8.765666302002493e-05,
      0.0,
      0.0002007937118146739,
      0.0003498745913913928,
      0.0006733573049645023,
      0.0,
      0.00016716254639130842,
      0.00012307942734375403,
      0.0007980360767880245,
      0.002060487384928085,
      0.6731831320987803,
      2.369505113931764,
      4.593111479640587,
      4.549843542814283,
      4.844927665439242,
      4.722810387342808,
      1.8322620192763328,
      2.4181299978202833,
      0.00035601701164297335,
      1.1173560797419517,
      0.0005603956054857566,
      2.2241910520105175,
      0.1361399275173309,
      0.9778664909399557,
      1.0568038756484923,
      0.0004885718286789472,
      0.06298853291874855,
      0.0012253711192211567,
      0.0011602529790233817,
      0.4987304163011696,
      2.1851717977374494,
      1.2201464747489315,
      3.045978848624575,
      3.4419846628018846,
      3.110804413602243,
      3.801720519259659,
      3.4431806209742093,
      1.308545494643659,
      0.5202947544875166,
      2.7662436274017583,
      4.886071484620815,
      1.4140625227613488,
      2.9933197227150306,
      3.177692711426576,
      1.468007038585083,
      1.8260055694398407,
      4.548198155885435,
      7.856937940947958,
      5.163630045875022,
      3.9235816208898737,
      1.4988668505030827,
      0.28006492133338867,
      0.08113474194338034,
      0.0013291853025501927,
      0.001337933951981187,
      0.0008901607424960985,
      0.0010032006587862388,
      0.0007959929180514397,
      0.0022244241485298616,
      0.000270307061166568,
      0.000997324698708216,
      0.0,
      0.0011191927054145091,
      0.0008976803543094609,
      0.7627349326850835,
      0.00035412272610227993,
      0.0002316967248606958,
      0.0010387340975480188,
      0.001236461409591458,
      0.0013719781934733333,
      0.5434619259331137,
      0.38301854473310476,
      1.7994131804788627,
      1.078882215774539,
      1.1145701948902182,
      0.41222485669237197,
      0.7801339752209006,
      2.1772818832935728,
      0.5787393049783439,
      1.2329855889210874,
      2.6996979742813245,
      0.8844199488928368,
      0.23298773751001295,
      0.3363206773223558,
      4.446028830730306,
      3.4420894466869645,
      3.6324842420160075,
      5.172429649177001,
      3.247622799751318,
      4.689804026259274,
      3.7547517197057796,
      3.6832475705942653,
      2.283045908683829,
      3.934135501305828,
      2.427366826105815,
      3.5123265453730634,
      2.8539519507692153,
      3.3775982359835592,
      2.745095107413319,
      2.6879756534240853,
      1.3151915478110912,
      2.178181273544282,
      2.1578211677769876,
      2.5929195898739215,
      2.301237151338468,
      3.369392241994814,
      3.803199177423347,
      5.016065365240975,
      3.8013114510855717,
      3.612991172962438,
      2.8138954035070265,
      4.194217974691581,
      3.6058589763202886,
      3.9668037831631584,
      2.456095714171959,
      3.471360224802072,
      3.7277140252423844,
      3.979786266800718,
      2.7174855375918576,
      2.0421865814004976,
      1.9215887469324067,
      2.0455800972740947,
      2.8739254748821095,
      2.2960742638912097,
      1.4645007564452783,
      2.312692301582159,
      3.9311598636206404,
      4.1206916099807245,
      2.5513338965604495,
      1.5169648915530218,
      2.1334053351746816,
      3.594150626725275,
      4.434629805990607,
      2.754175565713582,
      1.5578634213495395,
      2.1028854655398512,
      3.597145530022175,
      3.9359217235098325,
      2.301233567062613,
      1.4729932798542718,
      1.7010892076977795,
      3.347232594249229,
      3.3987644206661107,
      1.6869815837127735,
      1.1025671001203874,
      1.8726060668445312,
      3.3150818206782677,
      3.301009163575888,
      1.9048578352116972,
      0.9784398106171072,
      1.5947770731299948,
      3.6343563165574535,
      2.4973076518717265,
      2.2642168968840153,
      0.5746472476648997,
      3.0106581862637234,
      2.9424198508915964,
      3.9470439122325973
    ]
  },
  "hybrid_P500": {
    "method": "hybrid_lse_polyak",
    "P": 500,
    "exact_peak": 1.5086128968330559,
    "time_s": 101.7867534160614,
    "simplex_weights": [
      0.01468853795335902,
      4.965795423530544e-06,
      0.00035920792865942443,
      1.4560415572007352e-06,
      2.24949186499948e-06,
      0.003906734339890426,
      0.003635445314220382,
      0.00649472290741027,
      1.5514241782179735e-06,
      0.0008303170554471123,
      0.0015226277380032932,
      0.006450168653557389,
      0.0011156552475456887,
      0.0022226245219981304,
      0.001877401963511246,
      0.0017980569646822504,
      0.004960928100487002,
      0.0009286345204082376,
      0.007194137556320915,
      3.857499932233928e-05,
      3.450036052119006e-05,
      0.0034101861167865353,
      0.004340433714271933,
      0.0006563736908138762,
      0.0025919947808572107,
      0.0030123380310765786,
      0.0030069307917986315,
      0.0029880789302255675,
      0.00013810337348976647,
      0.0047410496154489295,
      0.001233129213826846,
      0.0026526498144233217,
      0.0036357657273563327,
      0.003749728353698592,
      0.0013119794387001003,
      0.0024384085703112704,
      0.004493091376774895,
      0.0033918888448080334,
      0.0031087025708973347,
      0.001424029145602328,
      0.003964539963198685,
      0.0008813031165675324,
      0.004622967322972283,
      0.00338086876228064,
      0.0018200530681449817,
      0.0008309080634665238,
      0.0002347428140848836,
      0.004569563211052431,
      0.002391183599275954,
      0.0012365347047394075,
      0.0014573046577919335,
      0.0015319500625616492,
      0.0017462292612567968,
      0.002861191611604335,
      0.0062818631662146015,
      0.0020476173491608875,
      2.353362902352346e-06,
      0.001346332266659747,
      0.0023635286100876503,
      0.003622952916366235,
      0.0029904666914899463,
      0.002417830655535809,
      0.0016538317908845266,
      0.0024610070341411173,
      0.002095228557087946,
      0.004310478543270512,
      0.003953177660464463,
      0.0003909374603573129,
      0.003100059813261932,
      0.0027383192752605608,
      0.0030331722526624203,
      0.003266948791200678,
      0.0037363364528536333,
      0.0017679293681739045,
      0.0018947303875437918,
      0.0032108719486748597,
      0.003521273038292824,
      0.002209241263042449,
      0.002219375642581917,
      0.00412608874252781,
      0.002485740086537288,
      0.0031300217229749505,
      0.001536724434578702,
      0.0035747416603422425,
      0.003666278673576177,
      0.0023266150563247645,
      0.003932803993010589,
      0.0038370894870729823,
      0.0018075318764149513,
      0.0026705472854794527,
      0.005514219878226509,
      0.003263085556489828,
      0.004575194812988652,
      0.0022144858861514955,
      0.003564874604639313,
      0.003893404072155028,
      0.003573011920489358,
      0.004716404793560563,
      0.0030707861021028312,
      0.0031227346424792155,
      0.0030675197694660667,
      0.006062693905684397,
      0.0044055857288811395,
      0.0035692231405030947,
      0.0018076093241546208,
      0.0042502583327730945,
      0.00409351257877995,
      0.00396560214850597,
      0.006433210367909438,
      0.001406958558804051,
      0.0035818971179410537,
      0.0026733740461073524,
      0.0037546953169169486,
      0.0051523489034828625,
      0.004401438413905063,
      0.0020783624528581167,
      0.003927213608393226,
      0.00319287813759194,
      0.003727248374418767,
      0.005072606602784857,
      0.0029076908562530425,
      0.0034321972726642494,
      0.0039359974044744965,
      0.00444226102874092,
      0.003105252857928193,
      0.00398669577493049,
      0.004649050179157203,
      0.00404492340159698,
      0.003021234608380257,
      0.0030482177028197982,
      0.004052513388186641,
      0.0036402134532681554,
      0.002944265282070158,
      0.0023562677775759546,
      0.001399997797984629,
      0.0023356018424233777,
      0.0013647890724601069,
      0.0028670310126929196,
      0.0044381494490885525,
      0.004150895947389694,
      0.00370388874288251,
      0.003683350039149006,
      0.0005788829210656686,
      3.3820050634401135e-06,
      0.0003092161039534783,
      0.003443727913041709,
      0.001806360206888162,
      0.003179105781113943,
      0.00487426474054524,
      0.001743296602436293,
      0.0020354216554098747,
      0.002845950919209193,
      0.0011798258941519613,
      0.0027414415423053797,
      0.004158423257353892,
      0.005647181703939991,
      0.006471314409414443,
      0.002688899140862897,
      0.0013986912632699855,
      0.0036676820860734156,
      0.00038681119489234974,
      0.004157960733775597,
      0.003694145555806724,
      0.005521196622317089,
      0.007216864982923081,
      0.006620328666194712,
      0.0017304243840872626,
      0.003085770563231122,
      0.004584864510835508,
      0.0029995102938655954,
      0.0002329718881265777,
      0.0012113198473199425,
      1.8883222219594705e-06,
      0.00010118979520457893,
      2.1321340250536417e-06,
      1.3616233725657916e-06,
      1.0451637078272392e-06,
      2.2394088709570705e-06,
      0.0011388830035356798,
      0.0011806859190540014,
      0.00011577169660520744,
      0.0006315926020727694,
      0.0017095180915294745,
      0.0021972070446591913,
      0.0024662147580446626,
      0.0006780388541361595,
      0.00151865515249892,
      0.0018696113315041676,
      0.001729193233351569,
      0.0005232663551208385,
      0.0012780738221395084,
      0.0003468879140702979,
      1.0935071755242385e-06,
      3.3964754451336056e-05,
      0.00018714090291858322,
      5.617975672094374e-05,
      1.1070258556631286e-06,
      9.718023967815675e-08,
      1.4955949535075602e-07,
      7.38429446321224e-07,
      3.148350216636629e-05,
      1.758597191818477e-06,
      0.0006890124964054926,
      0.0015934116357202836,
      0.0006728713986659475,
      0.00020881987760731582,
      0.0005344624356535488,
      1.3281521937302996e-05,
      0.0003248148387249378,
      0.0020825782897441678,
      0.0018692070672567443,
      0.0004386096129190455,
      0.0001423137491421859,
      0.000525440570091571,
      0.0004983284946992361,
      0.0015780423801883328,
      0.0016594234485928956,
      0.0031508267980501943,
      0.004023675688545456,
      0.00307103226714468,
      0.0019435459822753848,
      0.0023818911846343943,
      0.001478247041253073,
      0.001686438658565324,
      0.0007738723960776006,
      0.0021702287940565186,
      0.0018816902554895222,
      0.0012086231987951687,
      0.002293164271501645,
      0.0018860820637195339,
      0.0024326651191459506,
      0.0018004236512804762,
      0.0010499349526232105,
      0.0019339554805212563,
      0.0021031770936434397,
      0.0010815948525768275,
      0.0018884558846478656,
      0.0017289772557999897,
      0.002614340761364809,
      0.0015703107632075227,
      0.0009595283804558288,
      0.0017100960473289634,
      0.001758541285343261,
      0.0012068754725214187,
      0.0014685546561998496,
      0.0013639787580587575,
      0.000619465714082118,
      0.0009633411715914979,
      0.0006319426302612048,
      0.0010362160897557618,
      0.0021748161264139956,
      0.0008854920267307878,
      0.0007581073843652099,
      0.001145404028126716,
      0.0008016962914826188,
      0.0005435352195331309,
      0.0007405255641553909,
      0.0011215160978694703,
      0.00030152125324051587,
      1.0666367377900478e-06,
      1.1642911678017443e-07,
      6.454080699977658e-08,
      1.7257924884408865e-06,
      2.0836212585700617e-06,
      1.6408954180992559e-06,
      2.1132122582394514e-07,
      2.486390817418943e-07,
      6.820369336348552e-07,
      3.585130839544766e-07,
      8.373727811366726e-07,
      8.169971324055739e-07,
      0.000228356573421046,
      1.2645015374382626e-06,
      1.967530971007334e-06,
      1.172592121889355e-06,
      1.0835155588237929e-06,
      0.0,
      2.2741887768034863e-08,
      8.821087980097317e-07,
      0.0,
      1.3925575670817314e-06,
      5.066789882356415e-05,
      1.1276695134754422e-06,
      3.692392837323882e-05,
      2.5113048026171576e-07,
      0.0,
      5.327989030048594e-07,
      0.0,
      0.0,
      0.0,
      6.749776587643032e-07,
      6.870119181714808e-07,
      4.5704259666294004e-07,
      0.0003176586374674303,
      4.023043906639687e-06,
      9.772990102992508e-07,
      6.600809158998691e-07,
      9.063430214589881e-07,
      5.947126799071144e-07,
      1.5255375455532885e-06,
      1.9261365744479703e-06,
      0.0019976232014916875,
      0.003909530359343453,
      0.002924198805177356,
      0.0113861538217618,
      0.0027543844978182496,
      0.00357954260946134,
      9.43478361583265e-06,
      0.0009917874482783737,
      0.006711108695032923,
      0.005362306525206659,
      0.00018412483630008802,
      0.0028709704673850365,
      0.0039350648697357065,
      0.004233265767502807,
      0.0035143265450670075,
      0.00740946309103933,
      0.004818222810596527,
      0.004796907913370133,
      0.006023285689735961,
      0.0028977415915268723,
      0.0037987004989997603,
      0.0069019126069038645,
      0.008434442316386114,
      0.008348623581023253,
      0.007286057399239355,
      0.005783308605797173,
      0.005262771214726913,
      0.002864669904456122,
      0.0035281857735019947,
      0.0007403892949055866,
      1.3767911562489989e-06,
      0.0026510524081996695,
      0.001197195261395495,
      0.0006022037225699505,
      0.0013391346802277967,
      0.0030913110083028474,
      0.0030869325817196127,
      0.00323226904008574,
      0.0020311175004215907,
      0.0003637427401447138,
      3.970041854640781e-06,
      0.0,
      7.409388594810196e-05,
      0.0001270243135688726,
      0.0004926265248224256,
      9.004350339777744e-07,
      0.0009251344056354618,
      0.00044392496941068297,
      0.0019252225135295217,
      0.002766820680222829,
      0.0006801719569202036,
      0.002369512184684536,
      0.005193887854870392,
      0.004077970480122886,
      0.0036795354800906697,
      0.0009992639712414922,
      0.0018960087858334446,
      0.00024654963074542837,
      0.0027541745938414724,
      0.0036144618511068467,
      0.004451414192611341,
      0.005718081596856597,
      0.001957770478920984,
      0.0011833922966210143,
      0.0021162065151238228,
      0.0007217518763045958,
      0.00020847081693519992,
      3.4932209289176653e-06,
      2.4893265854033374e-06,
      7.794946836480573e-07,
      0.0002937354846619342,
      1.512028486897954e-06,
      0.00029414249431247995,
      0.0002684334373079365,
      7.554006371394797e-07,
      9.563686303114572e-07,
      1.712282511276763e-06,
      2.617150198264252e-09,
      8.713033694336356e-07,
      1.350887007081146e-06,
      6.367474515379054e-07,
      2.2540571414481854e-07,
      3.261783226552354e-07,
      0.0,
      5.321119054247946e-08,
      1.2812712929884446e-06,
      7.352771249855142e-07,
      1.519520708469333e-06,
      7.740560746052593e-07,
      0.0,
      4.728247173482467e-07,
      1.4086449704797328e-06,
      1.372532093926953e-06,
      6.862401566460899e-07,
      8.338093715022246e-07,
      6.959706630991941e-07,
      2.019313623975159e-06,
      9.380958035338269e-07,
      9.766704400575906e-07,
      7.100004267979202e-08,
      1.195597419666698e-07,
      2.1763959699791005e-08,
      2.1498344960194766e-06,
      1.991873102766761e-06,
      1.2861477739669764e-07,
      6.225192170879352e-08,
      0.0,
      0.0,
      1.108918144176793e-07,
      7.2538367708178e-07,
      0.0,
      6.210075398590033e-08,
      4.4438590724942653e-07,
      1.4486488906174191e-07,
      4.0149999895179285e-07,
      6.600018534000442e-07,
      8.180376077735772e-07,
      3.3874310043738457e-07,
      1.4494821482505795e-06,
      8.536202895940354e-07,
      1.7366658772242387e-05,
      6.128237192952984e-07,
      0.0,
      5.616922022273152e-07,
      8.628814200808575e-07,
      0.00011314009242757641,
      0.00015336387169330508,
      2.4805574342305042e-05,
      2.766657472650125e-05,
      1.3773067826937166e-06,
      1.9540216226102264e-06,
      3.1846210098957075e-07,
      0.0005051494255990524,
      0.0005754457299754404,
      4.7613793616656805e-06,
      0.0002813216752221524,
      0.0011703756939073272,
      2.4993413420404308e-06,
      2.0325231513650435e-06,
      6.528458882468501e-07,
      0.0003186726713904155,
      3.3239225780077257e-07,
      1.7146164812338993e-06,
      2.1314254228244735e-05,
      0.000998977043369851,
      0.0034016436229605622,
      0.0017814312635550018,
      0.0033787748518724747,
      0.0011429265538170708,
      0.0009827410704860247,
      0.00024175364275189548,
      0.0006946393489539415,
      0.0025883432886032003,
      0.0011598469977590938,
      5.386710911690202e-07,
      3.2950571891587975e-07,
      1.798478596265597e-06,
      2.0283207655813746e-06,
      0.00034322872760361186,
      1.5824159423520842e-06,
      1.1914605106036895e-06,
      7.575557306284155e-07,
      8.483924575786127e-07,
      1.1190714564766909e-06,
      6.487012840379094e-07,
      7.64485794690955e-07,
      1.2441111083021133e-06,
      8.412268530373853e-07,
      5.466352630132928e-06,
      0.0013904140850981275,
      0.0010869143588006509,
      4.2709747470760354e-07,
      7.399337903340781e-07,
      0.002333163438202189,
      0.00255341943702062,
      0.0065257364787895235,
      0.0016680479583018016,
      0.001958989991507934,
      0.003229628478594554,
      0.001739859058691951,
      0.0009584205353112039,
      0.0036691380068649498,
      0.0028817226636842124,
      0.004798752019707837,
      0.004651021530744648,
      0.0036785843932059656,
      0.00020464671486573514,
      3.2640355569466464e-06,
      0.0057266427819885335,
      0.00489467365694905,
      0.004637027651123225,
      0.005403224957198223,
      0.010562448666705993,
      0.01271805312960268,
      0.015360707901109853,
      0.015499137009347538,
      0.015413613145364574,
      0.01564849916981443,
      0.013305791490977322
    ],
    "edges": [
      -0.25,
      -0.249,
      -0.248,
      -0.247,
      -0.246,
      -0.245,
      -0.244,
      -0.243,
      -0.242,
      -0.241,
      -0.24,
      -0.239,
      -0.238,
      -0.237,
      -0.236,
      -0.235,
      -0.23399999999999999,
      -0.23299999999999998,
      -0.23199999999999998,
      -0.231,
      -0.23,
      -0.229,
      -0.228,
      -0.227,
      -0.226,
      -0.225,
      -0.224,
      -0.223,
      -0.222,
      -0.221,
      -0.22,
      -0.219,
      -0.218,
      -0.217,
      -0.216,
      -0.215,
      -0.214,
      -0.213,
      -0.212,
      -0.211,
      -0.21,
      -0.209,
      -0.208,
      -0.207,
      -0.20600000000000002,
      -0.20500000000000002,
      -0.20400000000000001,
      -0.203,
      -0.202,
      -0.201,
      -0.2,
      -0.199,
      -0.198,
      -0.197,
      -0.196,
      -0.195,
      -0.194,
      -0.193,
      -0.192,
      -0.191,
      -0.19,
      -0.189,
      -0.188,
      -0.187,
      -0.186,
      -0.185,
      -0.184,
      -0.183,
      -0.182,
      -0.181,
      -0.18,
      -0.179,
      -0.178,
      -0.177,
      -0.176,
      -0.175,
      -0.174,
      -0.173,
      -0.172,
      -0.17099999999999999,
      -0.16999999999999998,
      -0.16899999999999998,
      -0.16799999999999998,
      -0.16699999999999998,
      -0.16599999999999998,
      -0.16499999999999998,
      -0.16399999999999998,
      -0.16299999999999998,
      -0.162,
      -0.161,
      -0.16,
      -0.159,
      -0.158,
      -0.157,
      -0.156,
      -0.155,
      -0.154,
      -0.153,
      -0.152,
      -0.151,
      -0.15,
      -0.149,
      -0.148,
      -0.147,
      -0.146,
      -0.14500000000000002,
      -0.14400000000000002,
      -0.14300000000000002,
      -0.14200000000000002,
      -0.14100000000000001,
      -0.14,
      -0.139,
      -0.138,
      -0.137,
      -0.136,
      -0.135,
      -0.134,
      -0.133,
      -0.132,
      -0.131,
      -0.13,
      -0.129,
      -0.128,
      -0.127,
      -0.126,
      -0.125,
      -0.124,
      -0.123,
      -0.122,
      -0.121,
      -0.12,
      -0.119,
      -0.118,
      -0.11699999999999999,
      -0.11599999999999999,
      -0.11499999999999999,
      -0.11399999999999999,
      -0.11299999999999999,
      -0.11199999999999999,
      -0.11099999999999999,
      -0.10999999999999999,
      -0.10899999999999999,
      -0.10799999999999998,
      -0.10699999999999998,
      -0.10599999999999998,
      -0.10500000000000001,
      -0.10400000000000001,
      -0.10300000000000001,
      -0.10200000000000001,
      -0.101,
      -0.1,
      -0.099,
      -0.098,
      -0.097,
      -0.096,
      -0.095,
      -0.094,
      -0.093,
      -0.092,
      -0.091,
      -0.09,
      -0.089,
      -0.088,
      -0.087,
      -0.086,
      -0.08499999999999999,
      -0.08399999999999999,
      -0.08299999999999999,
      -0.08199999999999999,
      -0.08099999999999999,
      -0.07999999999999999,
      -0.07899999999999999,
      -0.07799999999999999,
      -0.07699999999999999,
      -0.07599999999999998,
      -0.07499999999999998,
      -0.07400000000000001,
      -0.07300000000000001,
      -0.07200000000000001,
      -0.07100000000000001,
      -0.07,
      -0.069,
      -0.068,
      -0.067,
      -0.066,
      -0.065,
      -0.064,
      -0.063,
      -0.062,
      -0.061,
      -0.06,
      -0.059,
      -0.057999999999999996,
      -0.056999999999999995,
      -0.055999999999999994,
      -0.05499999999999999,
      -0.05399999999999999,
      -0.05299999999999999,
      -0.05199999999999999,
      -0.05099999999999999,
      -0.04999999999999999,
      -0.04899999999999999,
      -0.04799999999999999,
      -0.046999999999999986,
      -0.045999999999999985,
      -0.044999999999999984,
      -0.043999999999999984,
      -0.04299999999999998,
      -0.04199999999999998,
      -0.04100000000000001,
      -0.04000000000000001,
      -0.03900000000000001,
      -0.038000000000000006,
      -0.037000000000000005,
      -0.036000000000000004,
      -0.035,
      -0.034,
      -0.033,
      -0.032,
      -0.031,
      -0.03,
      -0.028999999999999998,
      -0.027999999999999997,
      -0.026999999999999996,
      -0.025999999999999995,
      -0.024999999999999994,
      -0.023999999999999994,
      -0.022999999999999993,
      -0.021999999999999992,
      -0.02099999999999999,
      -0.01999999999999999,
      -0.01899999999999999,
      -0.017999999999999988,
      -0.016999999999999987,
      -0.015999999999999986,
      -0.014999999999999986,
      -0.013999999999999985,
      -0.012999999999999984,
      -0.011999999999999983,
      -0.010999999999999982,
      -0.010000000000000009,
      -0.009000000000000008,
      -0.008000000000000007,
      -0.007000000000000006,
      -0.006000000000000005,
      -0.0050000000000000044,
      -0.0040000000000000036,
      -0.0030000000000000027,
      -0.0020000000000000018,
      -0.0010000000000000009,
      0.0,
      0.0010000000000000009,
      0.0020000000000000018,
      0.0030000000000000027,
      0.0040000000000000036,
      0.0050000000000000044,
      0.006000000000000005,
      0.007000000000000006,
      0.008000000000000007,
      0.009000000000000008,
      0.010000000000000009,
      0.01100000000000001,
      0.01200000000000001,
      0.013000000000000012,
      0.014000000000000012,
      0.015000000000000013,
      0.016000000000000014,
      0.017000000000000015,
      0.018000000000000016,
      0.019000000000000017,
      0.020000000000000018,
      0.02100000000000002,
      0.02200000000000002,
      0.02300000000000002,
      0.02400000000000002,
      0.025000000000000022,
      0.026000000000000023,
      0.027000000000000024,
      0.028000000000000025,
      0.029000000000000026,
      0.030000000000000027,
      0.031000000000000028,
      0.03200000000000003,
      0.03300000000000003,
      0.03400000000000003,
      0.03500000000000003,
      0.03600000000000003,
      0.03700000000000003,
      0.038000000000000034,
      0.03899999999999998,
      0.03999999999999998,
      0.04099999999999998,
      0.04199999999999998,
      0.04299999999999998,
      0.043999999999999984,
      0.044999999999999984,
      0.045999999999999985,
      0.046999999999999986,
      0.04799999999999999,
      0.04899999999999999,
      0.04999999999999999,
      0.05099999999999999,
      0.05199999999999999,
      0.05299999999999999,
      0.05399999999999999,
      0.05499999999999999,
      0.055999999999999994,
      0.056999999999999995,
      0.057999999999999996,
      0.059,
      0.06,
      0.061,
      0.062,
      0.063,
      0.064,
      0.065,
      0.066,
      0.067,
      0.068,
      0.069,
      0.07,
      0.07100000000000001,
      0.07200000000000001,
      0.07300000000000001,
      0.07400000000000001,
      0.07500000000000001,
      0.07600000000000001,
      0.07700000000000001,
      0.07800000000000001,
      0.07900000000000001,
      0.08000000000000002,
      0.08100000000000002,
      0.08200000000000002,
      0.08300000000000002,
      0.08400000000000002,
      0.08500000000000002,
      0.08600000000000002,
      0.08700000000000002,
      0.08800000000000002,
      0.08900000000000002,
      0.09000000000000002,
      0.09100000000000003,
      0.09200000000000003,
      0.09300000000000003,
      0.09400000000000003,
      0.09500000000000003,
      0.09600000000000003,
      0.09700000000000003,
      0.09800000000000003,
      0.09900000000000003,
      0.10000000000000003,
      0.10100000000000003,
      0.10199999999999998,
      0.10299999999999998,
      0.10399999999999998,
      0.10499999999999998,
      0.10599999999999998,
      0.10699999999999998,
      0.10799999999999998,
      0.10899999999999999,
      0.10999999999999999,
      0.11099999999999999,
      0.11199999999999999,
      0.11299999999999999,
      0.11399999999999999,
      0.11499999999999999,
      0.11599999999999999,
      0.11699999999999999,
      0.118,
      0.119,
      0.12,
      0.121,
      0.122,
      0.123,
      0.124,
      0.125,
      0.126,
      0.127,
      0.128,
      0.129,
      0.13,
      0.131,
      0.132,
      0.133,
      0.134,
      0.135,
      0.136,
      0.137,
      0.138,
      0.139,
      0.14,
      0.14100000000000001,
      0.14200000000000002,
      0.14300000000000002,
      0.14400000000000002,
      0.14500000000000002,
      0.14600000000000002,
      0.14700000000000002,
      0.14800000000000002,
      0.14900000000000002,
      0.15000000000000002,
      0.15100000000000002,
      0.15200000000000002,
      0.15300000000000002,
      0.15400000000000003,
      0.15500000000000003,
      0.15600000000000003,
      0.15700000000000003,
      0.15800000000000003,
      0.15900000000000003,
      0.16000000000000003,
      0.16100000000000003,
      0.16200000000000003,
      0.16300000000000003,
      0.16400000000000003,
      0.16500000000000004,
      0.16600000000000004,
      0.16699999999999998,
      0.16799999999999998,
      0.16899999999999998,
      0.16999999999999998,
      0.17099999999999999,
      0.172,
      0.173,
      0.174,
      0.175,
      0.176,
      0.177,
      0.178,
      0.179,
      0.18,
      0.181,
      0.182,
      0.183,
      0.184,
      0.185,
      0.186,
      0.187,
      0.188,
      0.189,
      0.19,
      0.191,
      0.192,
      0.193,
      0.194,
      0.195,
      0.196,
      0.197,
      0.198,
      0.199,
      0.2,
      0.201,
      0.202,
      0.203,
      0.20400000000000001,
      0.20500000000000002,
      0.20600000000000002,
      0.20700000000000002,
      0.20800000000000002,
      0.20900000000000002,
      0.21000000000000002,
      0.21100000000000002,
      0.21200000000000002,
      0.21300000000000002,
      0.21400000000000002,
      0.21500000000000002,
      0.21600000000000003,
      0.21700000000000003,
      0.21800000000000003,
      0.21900000000000003,
      0.22000000000000003,
      0.22100000000000003,
      0.22200000000000003,
      0.22300000000000003,
      0.22400000000000003,
      0.22500000000000003,
      0.22600000000000003,
      0.22700000000000004,
      0.22800000000000004,
      0.22900000000000004,
      0.22999999999999998,
      0.23099999999999998,
      0.23199999999999998,
      0.23299999999999998,
      0.23399999999999999,
      0.235,
      0.236,
      0.237,
      0.238,
      0.239,
      0.24,
      0.241,
      0.242,
      0.243,
      0.244,
      0.245,
      0.246,
      0.247,
      0.248,
      0.249,
      0.25
    ],
    "heights": [
      14.68853795335902,
      0.004965795423530544,
      0.3592079286594244,
      0.0014560415572007351,
      0.00224949186499948,
      3.9067343398904257,
      3.635445314220382,
      6.49472290741027,
      0.0015514241782179734,
      0.8303170554471123,
      1.522627738003293,
      6.450168653557388,
      1.1156552475456887,
      2.22262452199813,
      1.877401963511246,
      1.7980569646822504,
      4.960928100487002,
      0.9286345204082376,
      7.194137556320915,
      0.03857499932233928,
      0.034500360521190064,
      3.410186116786535,
      4.340433714271932,
      0.6563736908138762,
      2.5919947808572106,
      3.0123380310765784,
      3.0069307917986317,
      2.9880789302255675,
      0.13810337348976648,
      4.741049615448929,
      1.233129213826846,
      2.6526498144233215,
      3.6357657273563326,
      3.749728353698592,
      1.3119794387001003,
      2.4384085703112706,
      4.4930913767748955,
      3.3918888448080335,
      3.108702570897335,
      1.424029145602328,
      3.964539963198685,
      0.8813031165675324,
      4.622967322972283,
      3.38086876228064,
      1.8200530681449816,
      0.8309080634665238,
      0.2347428140848836,
      4.569563211052431,
      2.3911835992759536,
      1.2365347047394075,
      1.4573046577919335,
      1.5319500625616491,
      1.7462292612567967,
      2.8611916116043346,
      6.281863166214602,
      2.0476173491608876,
      0.002353362902352346,
      1.346332266659747,
      2.3635286100876503,
      3.622952916366235,
      2.9904666914899463,
      2.417830655535809,
      1.6538317908845266,
      2.4610070341411174,
      2.0952285570879456,
      4.310478543270512,
      3.953177660464463,
      0.3909374603573129,
      3.100059813261932,
      2.7383192752605607,
      3.0331722526624203,
      3.2669487912006776,
      3.7363364528536334,
      1.7679293681739043,
      1.8947303875437917,
      3.2108719486748596,
      3.521273038292824,
      2.209241263042449,
      2.219375642581917,
      4.12608874252781,
      2.485740086537288,
      3.1300217229749503,
      1.536724434578702,
      3.574741660342242,
      3.6662786735761768,
      2.3266150563247643,
      3.932803993010589,
      3.837089487072982,
      1.8075318764149513,
      2.6705472854794525,
      5.514219878226509,
      3.263085556489828,
      4.575194812988652,
      2.2144858861514956,
      3.564874604639313,
      3.893404072155028,
      3.573011920489358,
      4.716404793560563,
      3.070786102102831,
      3.1227346424792155,
      3.0675197694660667,
      6.062693905684397,
      4.40558572888114,
      3.5692231405030945,
      1.8076093241546207,
      4.250258332773094,
      4.09351257877995,
      3.96560214850597,
      6.433210367909438,
      1.406958558804051,
      3.5818971179410535,
      2.6733740461073525,
      3.7546953169169486,
      5.152348903482863,
      4.401438413905063,
      2.0783624528581166,
      3.927213608393226,
      3.19287813759194,
      3.727248374418767,
      5.072606602784857,
      2.9076908562530424,
      3.4321972726642493,
      3.9359974044744965,
      4.442261028740919,
      3.105252857928193,
      3.9866957749304897,
      4.649050179157203,
      4.04492340159698,
      3.021234608380257,
      3.048217702819798,
      4.05251338818664,
      3.640213453268155,
      2.944265282070158,
      2.3562677775759546,
      1.399997797984629,
      2.3356018424233778,
      1.3647890724601068,
      2.8670310126929195,
      4.438149449088552,
      4.150895947389694,
      3.70388874288251,
      3.6833500391490057,
      0.5788829210656685,
      0.0033820050634401134,
      0.30921610395347826,
      3.443727913041709,
      1.806360206888162,
      3.1791057811139427,
      4.87426474054524,
      1.743296602436293,
      2.0354216554098747,
      2.845950919209193,
      1.1798258941519613,
      2.7414415423053797,
      4.158423257353892,
      5.6471817039399905,
      6.471314409414443,
      2.688899140862897,
      1.3986912632699855,
      3.6676820860734156,
      0.3868111948923497,
      4.157960733775597,
      3.6941455558067235,
      5.521196622317089,
      7.216864982923081,
      6.6203286661947125,
      1.7304243840872626,
      3.0857705632311223,
      4.584864510835508,
      2.9995102938655953,
      0.2329718881265777,
      1.2113198473199425,
      0.0018883222219594703,
      0.10118979520457892,
      0.002132134025053642,
      0.0013616233725657915,
      0.001045163707827239,
      0.0022394088709570704,
      1.1388830035356798,
      1.1806859190540013,
      0.11577169660520743,
      0.6315926020727693,
      1.7095180915294745,
      2.197207044659191,
      2.4662147580446625,
      0.6780388541361595,
      1.51865515249892,
      1.8696113315041676,
      1.729193233351569,
      0.5232663551208385,
      1.2780738221395083,
      0.3468879140702979,
      0.0010935071755242384,
      0.03396475445133605,
      0.1871409029185832,
      0.05617975672094374,
      0.0011070258556631287,
      9.718023967815676e-05,
      0.000149559495350756,
      0.000738429446321224,
      0.03148350216636629,
      0.0017585971918184769,
      0.6890124964054926,
      1.5934116357202834,
      0.6728713986659475,
      0.20881987760731582,
      0.5344624356535488,
      0.013281521937302995,
      0.32481483872493777,
      2.0825782897441676,
      1.8692070672567442,
      0.4386096129190455,
      0.1423137491421859,
      0.525440570091571,
      0.4983284946992361,
      1.5780423801883328,
      1.6594234485928956,
      3.1508267980501943,
      4.023675688545456,
      3.07103226714468,
      1.9435459822753847,
      2.3818911846343944,
      1.478247041253073,
      1.686438658565324,
      0.7738723960776006,
      2.1702287940565186,
      1.881690255489522,
      1.2086231987951688,
      2.2931642715016447,
      1.886082063719534,
      2.4326651191459505,
      1.800423651280476,
      1.0499349526232105,
      1.9339554805212562,
      2.1031770936434397,
      1.0815948525768275,
      1.8884558846478656,
      1.7289772557999896,
      2.614340761364809,
      1.5703107632075226,
      0.9595283804558288,
      1.7100960473289633,
      1.758541285343261,
      1.2068754725214188,
      1.4685546561998495,
      1.3639787580587575,
      0.619465714082118,
      0.9633411715914979,
      0.6319426302612048,
      1.0362160897557617,
      2.1748161264139956,
      0.8854920267307878,
      0.7581073843652099,
      1.145404028126716,
      0.8016962914826188,
      0.5435352195331309,
      0.740525564155391,
      1.1215160978694703,
      0.3015212532405159,
      0.0010666367377900477,
      0.00011642911678017443,
      6.454080699977658e-05,
      0.0017257924884408866,
      0.0020836212585700615,
      0.0016408954180992558,
      0.00021132122582394515,
      0.0002486390817418943,
      0.0006820369336348552,
      0.0003585130839544766,
      0.0008373727811366727,
      0.0008169971324055739,
      0.228356573421046,
      0.0012645015374382626,
      0.001967530971007334,
      0.001172592121889355,
      0.001083515558823793,
      0.0,
      2.274188776803486e-05,
      0.0008821087980097317,
      0.0,
      0.0013925575670817314,
      0.05066789882356415,
      0.0011276695134754423,
      0.03692392837323882,
      0.0002511304802617158,
      0.0,
      0.0005327989030048594,
      0.0,
      0.0,
      0.0,
      0.0006749776587643032,
      0.0006870119181714809,
      0.00045704259666294004,
      0.3176586374674303,
      0.0040230439066396865,
      0.0009772990102992507,
      0.0006600809158998691,
      0.0009063430214589881,
      0.0005947126799071144,
      0.0015255375455532885,
      0.0019261365744479703,
      1.9976232014916875,
      3.909530359343453,
      2.924198805177356,
      11.3861538217618,
      2.7543844978182497,
      3.57954260946134,
      0.00943478361583265,
      0.9917874482783736,
      6.711108695032923,
      5.362306525206659,
      0.18412483630008802,
      2.8709704673850363,
      3.9350648697357062,
      4.2332657675028065,
      3.5143265450670076,
      7.40946309103933,
      4.818222810596527,
      4.796907913370133,
      6.02328568973596,
      2.8977415915268723,
      3.7987004989997604,
      6.901912606903864,
      8.434442316386114,
      8.348623581023253,
      7.286057399239355,
      5.783308605797172,
      5.262771214726913,
      2.8646699044561217,
      3.5281857735019946,
      0.7403892949055866,
      0.0013767911562489988,
      2.6510524081996696,
      1.1971952613954948,
      0.6022037225699505,
      1.3391346802277966,
      3.0913110083028474,
      3.0869325817196125,
      3.23226904008574,
      2.0311175004215904,
      0.3637427401447138,
      0.0039700418546407806,
      0.0,
      0.07409388594810196,
      0.12702431356887262,
      0.4926265248224255,
      0.0009004350339777744,
      0.9251344056354618,
      0.44392496941068293,
      1.9252225135295218,
      2.7668206802228292,
      0.6801719569202036,
      2.369512184684536,
      5.1938878548703915,
      4.077970480122886,
      3.67953548009067,
      0.9992639712414921,
      1.8960087858334445,
      0.24654963074542835,
      2.7541745938414723,
      3.6144618511068467,
      4.451414192611341,
      5.718081596856597,
      1.9577704789209842,
      1.1833922966210144,
      2.1162065151238227,
      0.7217518763045958,
      0.20847081693519992,
      0.003493220928917665,
      0.0024893265854033374,
      0.0007794946836480573,
      0.2937354846619342,
      0.001512028486897954,
      0.29414249431247996,
      0.2684334373079365,
      0.0007554006371394797,
      0.0009563686303114572,
      0.001712282511276763,
      2.617150198264252e-06,
      0.0008713033694336356,
      0.001350887007081146,
      0.0006367474515379054,
      0.00022540571414481853,
      0.00032617832265523537,
      0.0,
      5.3211190542479455e-05,
      0.0012812712929884445,
      0.0007352771249855141,
      0.001519520708469333,
      0.0007740560746052593,
      0.0,
      0.0004728247173482467,
      0.0014086449704797327,
      0.0013725320939269531,
      0.0006862401566460899,
      0.0008338093715022246,
      0.0006959706630991941,
      0.002019313623975159,
      0.0009380958035338269,
      0.0009766704400575906,
      7.100004267979201e-05,
      0.0001195597419666698,
      2.1763959699791006e-05,
      0.0021498344960194766,
      0.0019918731027667607,
      0.00012861477739669765,
      6.225192170879351e-05,
      0.0,
      0.0,
      0.0001108918144176793,
      0.00072538367708178,
      0.0,
      6.210075398590033e-05,
      0.0004443859072494265,
      0.0001448648890617419,
      0.00040149999895179285,
      0.0006600018534000442,
      0.0008180376077735772,
      0.00033874310043738456,
      0.0014494821482505795,
      0.0008536202895940354,
      0.017366658772242388,
      0.0006128237192952984,
      0.0,
      0.0005616922022273152,
      0.0008628814200808575,
      0.1131400924275764,
      0.15336387169330506,
      0.024805574342305042,
      0.027666574726501247,
      0.0013773067826937165,
      0.001954021622610226,
      0.00031846210098957075,
      0.5051494255990524,
      0.5754457299754404,
      0.0047613793616656805,
      0.2813216752221524,
      1.170375693907327,
      0.0024993413420404307,
      0.0020325231513650434,
      0.0006528458882468501,
      0.3186726713904155,
      0.0003323922578007726,
      0.0017146164812338993,
      0.021314254228244733,
      0.9989770433698509,
      3.401643622960562,
      1.7814312635550018,
      3.3787748518724747,
      1.1429265538170708,
      0.9827410704860247,
      0.24175364275189548,
      0.6946393489539415,
      2.5883432886032,
      1.1598469977590937,
      0.0005386710911690203,
      0.00032950571891587975,
      0.001798478596265597,
      0.0020283207655813745,
      0.34322872760361184,
      0.0015824159423520842,
      0.0011914605106036894,
      0.0007575557306284155,
      0.0008483924575786127,
      0.0011190714564766908,
      0.0006487012840379094,
      0.000764485794690955,
      0.0012441111083021132,
      0.0008412268530373852,
      0.0054663526301329275,
      1.3904140850981275,
      1.086914358800651,
      0.00042709747470760356,
      0.0007399337903340781,
      2.333163438202189,
      2.55341943702062,
      6.525736478789524,
      1.6680479583018015,
      1.9589899915079338,
      3.229628478594554,
      1.7398590586919511,
      0.9584205353112039,
      3.6691380068649497,
      2.8817226636842124,
      4.798752019707837,
      4.651021530744647,
      3.6785843932059654,
      0.20464671486573513,
      0.003264035556946646,
      5.7266427819885335,
      4.89467365694905,
      4.6370276511232245,
      5.403224957198224,
      10.562448666705993,
      12.718053129602678,
      15.360707901109853,
      15.499137009347537,
      15.413613145364573,
      15.648499169814428,
      13.305791490977322
    ]
  }
}